digraph Tree {
node [shape=box, style="rounded", color="black", fontname=helvetica] ;
edge [fontname=helvetica] ;
0 [label="node #0\nRiskLevel <= 1.5\nfriedman_mse = 9.7\nsamples = 709\nvalue = 0.0"] ;
1 [label="node #1\nAge <= 39.5\nfriedman_mse = 2.5\nsamples = 520\nvalue = -1.2"] ;
0 -> 1 [labeldistance=2.5, labelangle=45, headlabel="True"] ;
2 [label="node #2\nHeartRate <= 81.0\nfriedman_mse = 0.4\nsamples = 422\nvalue = -1.5"] ;
1 -> 2 ;
3 [label="node #3\nfriedman_mse = 0.3\nsamples = 375\nvalue = -1.5"] ;
2 -> 3 ;
4 [label="node #4\nfriedman_mse = 0.7\nsamples = 47\nvalue = -1.0"] ;
2 -> 4 ;
5 [label="node #5\nSystolicBP <= 125.0\nfriedman_mse = 9.7\nsamples = 98\nvalue = 0.1"] ;
1 -> 5 ;
6 [label="node #6\nfriedman_mse = 5.3\nsamples = 87\nvalue = -0.5"] ;
5 -> 6 ;
7 [label="node #7\nfriedman_mse = 17.3\nsamples = 11\nvalue = 5.0"] ;
5 -> 7 ;
8 [label="node #8\nAge <= 39.5\nfriedman_mse = 15.3\nsamples = 189\nvalue = 3.2"] ;
0 -> 8 [labeldistance=2.5, labelangle=-45, headlabel="False"] ;
9 [label="node #9\nHeartRate <= 87.0\nfriedman_mse = 11.4\nsamples = 102\nvalue = 1.5"] ;
8 -> 9 ;
10 [label="node #10\nfriedman_mse = 8.0\nsamples = 89\nvalue = 0.8"] ;
9 -> 10 ;
11 [label="node #11\nfriedman_mse = 11.0\nsamples = 13\nvalue = 6.1"] ;
9 -> 11 ;
12 [label="node #12\nSystolicBP <= 125.0\nfriedman_mse = 11.9\nsamples = 87\nvalue = 5.3"] ;
8 -> 12 ;
13 [label="node #13\nfriedman_mse = 6.5\nsamples = 35\nvalue = 2.5"] ;
12 -> 13 ;
14 [label="node #14\nfriedman_mse = 7.0\nsamples = 52\nvalue = 7.1"] ;
12 -> 14 ;
}